digraph Tree {
node [shape=box] ;
0 [label="X[4] <= 7108.0\ngini = 0.7567\nsamples = 784\nvalue = [3, 123, 247, 13, 249, 83, 66]"] ;
1 [label="X[4] <= 1293.0\ngini = 0.5986\nsamples = 310\nvalue = [0, 18, 182, 5, 26, 14, 65]"] ;
0 -> 1 [labeldistance=2.5, labelangle=45, headlabel="True"] ;
2 [label="X[1] <= 3304.0\ngini = 0.5193\nsamples = 97\nvalue = [0, 8, 0, 4, 7, 13, 65]"] ;
1 -> 2 ;
3 [label="X[8] <= 2617.5\ngini = 0.2283\nsamples = 63\nvalue = [0, 6, 0, 1, 0, 1, 55]"] ;
2 -> 3 ;
4 [label="X[1] <= 3206.0\ngini = 0.0357\nsamples = 55\nvalue = [0, 0, 0, 0, 0, 1, 54]"] ;
3 -> 4 ;
5 [label="gini = 0.0\nsamples = 49\nvalue = [0, 0, 0, 0, 0, 0, 49]"] ;
4 -> 5 ;
6 [label="X[1] <= 3213.5\ngini = 0.2778\nsamples = 6\nvalue = [0, 0, 0, 0, 0, 1, 5]"] ;
4 -> 6 ;
7 [label="gini = 0.0\nsamples = 1\nvalue = [0, 0, 0, 0, 0, 1, 0]"] ;
6 -> 7 ;
8 [label="gini = 0.0\nsamples = 5\nvalue = [0, 0, 0, 0, 0, 0, 5]"] ;
6 -> 8 ;
9 [label="X[1] <= 3198.5\ngini = 0.4063\nsamples = 8\nvalue = [0, 6, 0, 1, 0, 0, 1]"] ;
3 -> 9 ;
10 [label="X[1] <= 2931.0\ngini = 0.2449\nsamples = 7\nvalue = [0, 6, 0, 1, 0, 0, 0]"] ;
9 -> 10 ;
11 [label="gini = 0.0\nsamples = 5\nvalue = [0, 5, 0, 0, 0, 0, 0]"] ;
10 -> 11 ;
12 [label="X[8] <= 7968.0\ngini = 0.5\nsamples = 2\nvalue = [0, 1, 0, 1, 0, 0, 0]"] ;
10 -> 12 ;
13 [label="gini = 0.0\nsamples = 1\nvalue = [0, 0, 0, 1, 0, 0, 0]"] ;
12 -> 13 ;
14 [label="gini = 0.0\nsamples = 1\nvalue = [0, 1, 0, 0, 0, 0, 0]"] ;
12 -> 14 ;
15 [label="gini = 0.0\nsamples = 1\nvalue = [0, 0, 0, 0, 0, 0, 1]"] ;
9 -> 15 ;
16 [label="X[5] <= 1955.0\ngini = 0.7353\nsamples = 34\nvalue = [0, 2, 0, 3, 7, 12, 10]"] ;
2 -> 16 ;
17 [label="X[0] <= 1149.0\ngini = 0.645\nsamples = 20\nvalue = [0, 1, 0, 2, 1, 6, 10]"] ;
16 -> 17 ;
18 [label="X[2] <= 2253.0\ngini = 0.5\nsamples = 4\nvalue = [0, 0, 0, 2, 0, 2, 0]"] ;
17 -> 18 ;
19 [label="gini = 0.0\nsamples = 2\nvalue = [0, 0, 0, 2, 0, 0, 0]"] ;
18 -> 19 ;
20 [label="gini = 0.0\nsamples = 2\nvalue = [0, 0, 0, 0, 0, 2, 0]"] ;
18 -> 20 ;
21 [label="X[2] <= 2423.5\ngini = 0.5391\nsamples = 16\nvalue = [0, 1, 0, 0, 1, 4, 10]"] ;
17 -> 21 ;
22 [label="X[2] <= 2211.0\ngini = 0.4167\nsamples = 12\nvalue = [0, 1, 0, 0, 1, 1, 9]"] ;
21 -> 22 ;
23 [label="gini = 0.0\nsamples = 1\nvalue = [0, 0, 0, 0, 1, 0, 0]"] ;
22 -> 23 ;
24 [label="X[8] <= 5654.0\ngini = 0.314\nsamples = 11\nvalue = [0, 1, 0, 0, 0, 1, 9]"] ;
22 -> 24 ;
25 [label="X[5] <= 1863.0\ngini = 0.1975\nsamples = 9\nvalue = [0, 0, 0, 0, 0, 1, 8]"] ;
24 -> 25 ;
26 [label="X[0] <= 1177.0\ngini = 0.5\nsamples = 2\nvalue = [0, 0, 0, 0, 0, 1, 1]"] ;
25 -> 26 ;
27 [label="gini = 0.0\nsamples = 1\nvalue = [0, 0, 0, 0, 0, 0, 1]"] ;
26 -> 27 ;
28 [label="gini = 0.0\nsamples = 1\nvalue = [0, 0, 0, 0, 0, 1, 0]"] ;
26 -> 28 ;
29 [label="gini = 0.0\nsamples = 7\nvalue = [0, 0, 0, 0, 0, 0, 7]"] ;
25 -> 29 ;
30 [label="X[0] <= 1241.0\ngini = 0.5\nsamples = 2\nvalue = [0, 1, 0, 0, 0, 0, 1]"] ;
24 -> 30 ;
31 [label="gini = 0.0\nsamples = 1\nvalue = [0, 1, 0, 0, 0, 0, 0]"] ;
30 -> 31 ;
32 [label="gini = 0.0\nsamples = 1\nvalue = [0, 0, 0, 0, 0, 0, 1]"] ;
30 -> 32 ;
33 [label="X[0] <= 1201.0\ngini = 0.375\nsamples = 4\nvalue = [0, 0, 0, 0, 0, 3, 1]"] ;
21 -> 33 ;
34 [label="gini = 0.0\nsamples = 1\nvalue = [0, 0, 0, 0, 0, 0, 1]"] ;
33 -> 34 ;
35 [label="gini = 0.0\nsamples = 3\nvalue = [0, 0, 0, 0, 0, 3, 0]"] ;
33 -> 35 ;
36 [label="X[1] <= 3712.5\ngini = 0.6224\nsamples = 14\nvalue = [0, 1, 0, 1, 6, 6, 0]"] ;
16 -> 36 ;
37 [label="X[0] <= 1247.5\ngini = 0.375\nsamples = 8\nvalue = [0, 0, 0, 0, 6, 2, 0]"] ;
36 -> 37 ;
38 [label="gini = 0.0\nsamples = 6\nvalue = [0, 0, 0, 0, 6, 0, 0]"] ;
37 -> 38 ;
39 [label="gini = 0.0\nsamples = 2\nvalue = [0, 0, 0, 0, 0, 2, 0]"] ;
37 -> 39 ;
40 [label="X[1] <= 4217.5\ngini = 0.5\nsamples = 6\nvalue = [0, 1, 0, 1, 0, 4, 0]"] ;
36 -> 40 ;
41 [label="gini = 0.0\nsamples = 4\nvalue = [0, 0, 0, 0, 0, 4, 0]"] ;
40 -> 41 ;
42 [label="X[2] <= 2550.0\ngini = 0.5\nsamples = 2\nvalue = [0, 1, 0, 1, 0, 0, 0]"] ;
40 -> 42 ;
43 [label="gini = 0.0\nsamples = 1\nvalue = [0, 0, 0, 1, 0, 0, 0]"] ;
42 -> 43 ;
44 [label="gini = 0.0\nsamples = 1\nvalue = [0, 1, 0, 0, 0, 0, 0]"] ;
42 -> 44 ;
45 [label="X[4] <= 6459.0\ngini = 0.2597\nsamples = 213\nvalue = [0, 10, 182, 1, 19, 1, 0]"] ;
1 -> 45 ;
46 [label="X[2] <= 2197.0\ngini = 0.0284\nsamples = 139\nvalue = [0, 0, 137, 0, 2, 0, 0]"] ;
45 -> 46 ;
47 [label="X[2] <= 2191.0\ngini = 0.32\nsamples = 5\nvalue = [0, 0, 4, 0, 1, 0, 0]"] ;
46 -> 47 ;
48 [label="gini = 0.0\nsamples = 4\nvalue = [0, 0, 4, 0, 0, 0, 0]"] ;
47 -> 48 ;
49 [label="gini = 0.0\nsamples = 1\nvalue = [0, 0, 0, 0, 1, 0, 0]"] ;
47 -> 49 ;
50 [label="X[4] <= 6370.0\ngini = 0.0148\nsamples = 134\nvalue = [0, 0, 133, 0, 1, 0, 0]"] ;
46 -> 50 ;
51 [label="gini = 0.0\nsamples = 128\nvalue = [0, 0, 128, 0, 0, 0, 0]"] ;
50 -> 51 ;
52 [label="X[4] <= 6381.5\ngini = 0.2778\nsamples = 6\nvalue = [0, 0, 5, 0, 1, 0, 0]"] ;
50 -> 52 ;
53 [label="gini = 0.0\nsamples = 1\nvalue = [0, 0, 0, 0, 1, 0, 0]"] ;
52 -> 53 ;
54 [label="gini = 0.0\nsamples = 5\nvalue = [0, 0, 5, 0, 0, 0, 0]"] ;
52 -> 54 ;
55 [label="X[8] <= 6190.0\ngini = 0.5588\nsamples = 74\nvalue = [0, 10, 45, 1, 17, 1, 0]"] ;
45 -> 55 ;
56 [label="X[8] <= 2016.0\ngini = 0.6722\nsamples = 27\nvalue = [0, 10, 11, 1, 4, 1, 0]"] ;
55 -> 56 ;
57 [label="X[2] <= 2217.5\ngini = 0.4609\nsamples = 16\nvalue = [0, 0, 11, 0, 4, 1, 0]"] ;
56 -> 57 ;
58 [label="gini = 0.0\nsamples = 4\nvalue = [0, 0, 0, 0, 4, 0, 0]"] ;
57 -> 58 ;
59 [label="X[4] <= 7014.0\ngini = 0.1528\nsamples = 12\nvalue = [0, 0, 11, 0, 0, 1, 0]"] ;
57 -> 59 ;
60 [label="gini = 0.0\nsamples = 10\nvalue = [0, 0, 10, 0, 0, 0, 0]"] ;
59 -> 60 ;
61 [label="X[6] <= 6250.0\ngini = 0.5\nsamples = 2\nvalue = [0, 0, 1, 0, 0, 1, 0]"] ;
59 -> 61 ;
62 [label="gini = 0.0\nsamples = 1\nvalue = [0, 0, 0, 0, 0, 1, 0]"] ;
61 -> 62 ;
63 [label="gini = 0.0\nsamples = 1\nvalue = [0, 0, 1, 0, 0, 0, 0]"] ;
61 -> 63 ;
64 [label="X[5] <= 2152.5\ngini = 0.1653\nsamples = 11\nvalue = [0, 10, 0, 1, 0, 0, 0]"] ;
56 -> 64 ;
65 [label="gini = 0.0\nsamples = 10\nvalue = [0, 10, 0, 0, 0, 0, 0]"] ;
64 -> 65 ;
66 [label="gini = 0.0\nsamples = 1\nvalue = [0, 0, 0, 1, 0, 0, 0]"] ;
64 -> 66 ;
67 [label="X[0] <= 1172.0\ngini = 0.4002\nsamples = 47\nvalue = [0, 0, 34, 0, 13, 0, 0]"] ;
55 -> 67 ;
68 [label="gini = 0.0\nsamples = 17\nvalue = [0, 0, 17, 0, 0, 0, 0]"] ;
67 -> 68 ;
69 [label="X[3] <= 9222.5\ngini = 0.4911\nsamples = 30\nvalue = [0, 0, 17, 0, 13, 0, 0]"] ;
67 -> 69 ;
70 [label="X[8] <= 7092.5\ngini = 0.2449\nsamples = 7\nvalue = [0, 0, 1, 0, 6, 0, 0]"] ;
69 -> 70 ;
71 [label="gini = 0.0\nsamples = 1\nvalue = [0, 0, 1, 0, 0, 0, 0]"] ;
70 -> 71 ;
72 [label="gini = 0.0\nsamples = 6\nvalue = [0, 0, 0, 0, 6, 0, 0]"] ;
70 -> 72 ;
73 [label="X[8] <= 19660.0\ngini = 0.4234\nsamples = 23\nvalue = [0, 0, 16, 0, 7, 0, 0]"] ;
69 -> 73 ;
74 [label="X[4] <= 6473.0\ngini = 0.3628\nsamples = 21\nvalue = [0, 0, 16, 0, 5, 0, 0]"] ;
73 -> 74 ;
75 [label="gini = 0.0\nsamples = 2\nvalue = [0, 0, 0, 0, 2, 0, 0]"] ;
74 -> 75 ;
76 [label="X[3] <= 13775.0\ngini = 0.2659\nsamples = 19\nvalue = [0, 0, 16, 0, 3, 0, 0]"] ;
74 -> 76 ;
77 [label="gini = 0.0\nsamples = 13\nvalue = [0, 0, 13, 0, 0, 0, 0]"] ;
76 -> 77 ;
78 [label="X[2] <= 2517.5\ngini = 0.5\nsamples = 6\nvalue = [0, 0, 3, 0, 3, 0, 0]"] ;
76 -> 78 ;
79 [label="gini = 0.0\nsamples = 3\nvalue = [0, 0, 3, 0, 0, 0, 0]"] ;
78 -> 79 ;
80 [label="gini = 0.0\nsamples = 3\nvalue = [0, 0, 0, 0, 3, 0, 0]"] ;
78 -> 80 ;
81 [label="gini = 0.0\nsamples = 2\nvalue = [0, 0, 0, 0, 2, 0, 0]"] ;
73 -> 81 ;
82 [label="X[8] <= 8246.0\ngini = 0.6893\nsamples = 474\nvalue = [3, 105, 65, 8, 223, 69, 1]"] ;
0 -> 82 [labeldistance=2.5, labelangle=-45, headlabel="False"] ;
83 [label="X[8] <= 2066.0\ngini = 0.6175\nsamples = 178\nvalue = [0, 99, 14, 7, 43, 15, 0]"] ;
82 -> 83 ;
84 [label="X[4] <= 8668.0\ngini = 0.6234\nsamples = 41\nvalue = [0, 0, 13, 0, 20, 8, 0]"] ;
83 -> 84 ;
85 [label="X[2] <= 2435.0\ngini = 0.4882\nsamples = 26\nvalue = [0, 0, 11, 0, 15, 0, 0]"] ;
84 -> 85 ;
86 [label="X[1] <= 3963.5\ngini = 0.3457\nsamples = 18\nvalue = [0, 0, 4, 0, 14, 0, 0]"] ;
85 -> 86 ;
87 [label="X[4] <= 7655.0\ngini = 0.2188\nsamples = 16\nvalue = [0, 0, 2, 0, 14, 0, 0]"] ;
86 -> 87 ;
88 [label="X[4] <= 7418.0\ngini = 0.48\nsamples = 5\nvalue = [0, 0, 2, 0, 3, 0, 0]"] ;
87 -> 88 ;
89 [label="gini = 0.0\nsamples = 3\nvalue = [0, 0, 0, 0, 3, 0, 0]"] ;
88 -> 89 ;
90 [label="gini = 0.0\nsamples = 2\nvalue = [0, 0, 2, 0, 0, 0, 0]"] ;
88 -> 90 ;
91 [label="gini = 0.0\nsamples = 11\nvalue = [0, 0, 0, 0, 11, 0, 0]"] ;
87 -> 91 ;
92 [label="gini = 0.0\nsamples = 2\nvalue = [0, 0, 2, 0, 0, 0, 0]"] ;
86 -> 92 ;
93 [label="X[5] <= 1964.5\ngini = 0.2188\nsamples = 8\nvalue = [0, 0, 7, 0, 1, 0, 0]"] ;
85 -> 93 ;
94 [label="gini = 0.0\nsamples = 6\nvalue = [0, 0, 6, 0, 0, 0, 0]"] ;
93 -> 94 ;
95 [label="X[4] <= 8357.5\ngini = 0.5\nsamples = 2\nvalue = [0, 0, 1, 0, 1, 0, 0]"] ;
93 -> 95 ;
96 [label="gini = 0.0\nsamples = 1\nvalue = [0, 0, 1, 0, 0, 0, 0]"] ;
95 -> 96 ;
97 [label="gini = 0.0\nsamples = 1\nvalue = [0, 0, 0, 0, 1, 0, 0]"] ;
95 -> 97 ;
98 [label="X[4] <= 10497.5\ngini = 0.5867\nsamples = 15\nvalue = [0, 0, 2, 0, 5, 8, 0]"] ;
84 -> 98 ;
99 [label="X[0] <= 1237.5\ngini = 0.625\nsamples = 12\nvalue = [0, 0, 2, 0, 5, 5, 0]"] ;
98 -> 99 ;
100 [label="X[4] <= 9193.0\ngini = 0.5926\nsamples = 9\nvalue = [0, 0, 2, 0, 2, 5, 0]"] ;
99 -> 100 ;
101 [label="X[5] <= 1832.0\ngini = 0.4444\nsamples = 6\nvalue = [0, 0, 2, 0, 0, 4, 0]"] ;
100 -> 101 ;
102 [label="gini = 0.0\nsamples = 1\nvalue = [0, 0, 1, 0, 0, 0, 0]"] ;
101 -> 102 ;
103 [label="X[4] <= 8733.0\ngini = 0.32\nsamples = 5\nvalue = [0, 0, 1, 0, 0, 4, 0]"] ;
101 -> 103 ;
104 [label="X[2] <= 2435.0\ngini = 0.5\nsamples = 2\nvalue = [0, 0, 1, 0, 0, 1, 0]"] ;
103 -> 104 ;
105 [label="gini = 0.0\nsamples = 1\nvalue = [0, 0, 0, 0, 0, 1, 0]"] ;
104 -> 105 ;
106 [label="gini = 0.0\nsamples = 1\nvalue = [0, 0, 1, 0, 0, 0, 0]"] ;
104 -> 106 ;
107 [label="gini = 0.0\nsamples = 3\nvalue = [0, 0, 0, 0, 0, 3, 0]"] ;
103 -> 107 ;
108 [label="X[0] <= 1234.5\ngini = 0.4444\nsamples = 3\nvalue = [0, 0, 0, 0, 2, 1, 0]"] ;
100 -> 108 ;
109 [label="gini = 0.0\nsamples = 2\nvalue = [0, 0, 0, 0, 2, 0, 0]"] ;
108 -> 109 ;
110 [label="gini = 0.0\nsamples = 1\nvalue = [0, 0, 0, 0, 0, 1, 0]"] ;
108 -> 110 ;
111 [label="gini = 0.0\nsamples = 3\nvalue = [0, 0, 0, 0, 3, 0, 0]"] ;
99 -> 111 ;
112 [label="gini = 0.0\nsamples = 3\nvalue = [0, 0, 0, 0, 0, 3, 0]"] ;
98 -> 112 ;
113 [label="X[5] <= 2058.0\ngini = 0.4443\nsamples = 137\nvalue = [0, 99, 1, 7, 23, 7, 0]"] ;
83 -> 113 ;
114 [label="X[8] <= 6349.5\ngini = 0.3059\nsamples = 98\nvalue = [0, 81, 1, 2, 8, 6, 0]"] ;
113 -> 114 ;
115 [label="X[4] <= 7401.5\ngini = 0.0634\nsamples = 61\nvalue = [0, 59, 0, 0, 2, 0, 0]"] ;
114 -> 115 ;
116 [label="X[1] <= 3247.0\ngini = 0.4444\nsamples = 3\nvalue = [0, 2, 0, 0, 1, 0, 0]"] ;
115 -> 116 ;
117 [label="gini = 0.0\nsamples = 1\nvalue = [0, 0, 0, 0, 1, 0, 0]"] ;
116 -> 117 ;
118 [label="gini = 0.0\nsamples = 2\nvalue = [0, 2, 0, 0, 0, 0, 0]"] ;
116 -> 118 ;
119 [label="X[4] <= 9887.0\ngini = 0.0339\nsamples = 58\nvalue = [0, 57, 0, 0, 1, 0, 0]"] ;
115 -> 119 ;
120 [label="gini = 0.0\nsamples = 48\nvalue = [0, 48, 0, 0, 0, 0, 0]"] ;
119 -> 120 ;
121 [label="X[4] <= 10274.5\ngini = 0.18\nsamples = 10\nvalue = [0, 9, 0, 0, 1, 0, 0]"] ;
119 -> 121 ;
122 [label="gini = 0.0\nsamples = 1\nvalue = [0, 0, 0, 0, 1, 0, 0]"] ;
121 -> 122 ;
123 [label="gini = 0.0\nsamples = 9\nvalue = [0, 9, 0, 0, 0, 0, 0]"] ;
121 -> 123 ;
124 [label="X[3] <= 9508.0\ngini = 0.5902\nsamples = 37\nvalue = [0, 22, 1, 2, 6, 6, 0]"] ;
114 -> 124 ;
125 [label="X[4] <= 10973.5\ngini = 0.2145\nsamples = 17\nvalue = [0, 15, 0, 0, 1, 1, 0]"] ;
124 -> 125 ;
126 [label="gini = 0.0\nsamples = 15\nvalue = [0, 15, 0, 0, 0, 0, 0]"] ;
125 -> 126 ;
127 [label="X[3] <= 1392.5\ngini = 0.5\nsamples = 2\nvalue = [0, 0, 0, 0, 1, 1, 0]"] ;
125 -> 127 ;
128 [label="gini = 0.0\nsamples = 1\nvalue = [0, 0, 0, 0, 0, 1, 0]"] ;
127 -> 128 ;
129 [label="gini = 0.0\nsamples = 1\nvalue = [0, 0, 0, 0, 1, 0, 0]"] ;
127 -> 129 ;
130 [label="X[2] <= 2440.0\ngini = 0.74\nsamples = 20\nvalue = [0, 7, 1, 2, 5, 5, 0]"] ;
124 -> 130 ;
131 [label="X[0] <= 1168.0\ngini = 0.6281\nsamples = 11\nvalue = [0, 0, 0, 2, 4, 5, 0]"] ;
130 -> 131 ;
132 [label="X[8] <= 6430.0\ngini = 0.2778\nsamples = 6\nvalue = [0, 0, 0, 0, 1, 5, 0]"] ;
131 -> 132 ;
133 [label="gini = 0.0\nsamples = 1\nvalue = [0, 0, 0, 0, 1, 0, 0]"] ;
132 -> 133 ;
134 [label="gini = 0.0\nsamples = 5\nvalue = [0, 0, 0, 0, 0, 5, 0]"] ;
132 -> 134 ;
135 [label="X[5] <= 1885.0\ngini = 0.48\nsamples = 5\nvalue = [0, 0, 0, 2, 3, 0, 0]"] ;
131 -> 135 ;
136 [label="gini = 0.0\nsamples = 2\nvalue = [0, 0, 0, 2, 0, 0, 0]"] ;
135 -> 136 ;
137 [label="gini = 0.0\nsamples = 3\nvalue = [0, 0, 0, 0, 3, 0, 0]"] ;
135 -> 137 ;
138 [label="X[4] <= 9002.0\ngini = 0.3704\nsamples = 9\nvalue = [0, 7, 1, 0, 1, 0, 0]"] ;
130 -> 138 ;
139 [label="X[1] <= 3797.5\ngini = 0.5\nsamples = 2\nvalue = [0, 0, 1, 0, 1, 0, 0]"] ;
138 -> 139 ;
140 [label="gini = 0.0\nsamples = 1\nvalue = [0, 0, 0, 0, 1, 0, 0]"] ;
139 -> 140 ;
141 [label="gini = 0.0\nsamples = 1\nvalue = [0, 0, 1, 0, 0, 0, 0]"] ;
139 -> 141 ;
142 [label="gini = 0.0\nsamples = 7\nvalue = [0, 7, 0, 0, 0, 0, 0]"] ;
138 -> 142 ;
143 [label="X[8] <= 5170.0\ngini = 0.622\nsamples = 39\nvalue = [0, 18, 0, 5, 15, 1, 0]"] ;
113 -> 143 ;
144 [label="X[4] <= 7543.5\ngini = 0.1653\nsamples = 11\nvalue = [0, 10, 0, 0, 1, 0, 0]"] ;
143 -> 144 ;
145 [label="gini = 0.0\nsamples = 1\nvalue = [0, 0, 0, 0, 1, 0, 0]"] ;
144 -> 145 ;
146 [label="gini = 0.0\nsamples = 10\nvalue = [0, 10, 0, 0, 0, 0, 0]"] ;
144 -> 146 ;
147 [label="X[1] <= 3548.5\ngini = 0.6352\nsamples = 28\nvalue = [0, 8, 0, 5, 14, 1, 0]"] ;
143 -> 147 ;
148 [label="X[3] <= 14018.0\ngini = 0.5417\nsamples = 12\nvalue = [0, 7, 0, 4, 0, 1, 0]"] ;
147 -> 148 ;
149 [label="gini = 0.0\nsamples = 6\nvalue = [0, 6, 0, 0, 0, 0, 0]"] ;
148 -> 149 ;
150 [label="X[2] <= 2485.0\ngini = 0.5\nsamples = 6\nvalue = [0, 1, 0, 4, 0, 1, 0]"] ;
148 -> 150 ;
151 [label="gini = 0.0\nsamples = 4\nvalue = [0, 0, 0, 4, 0, 0, 0]"] ;
150 -> 151 ;
152 [label="X[3] <= 26045.0\ngini = 0.5\nsamples = 2\nvalue = [0, 1, 0, 0, 0, 1, 0]"] ;
150 -> 152 ;
153 [label="gini = 0.0\nsamples = 1\nvalue = [0, 1, 0, 0, 0, 0, 0]"] ;
152 -> 153 ;
154 [label="gini = 0.0\nsamples = 1\nvalue = [0, 0, 0, 0, 0, 1, 0]"] ;
152 -> 154 ;
155 [label="X[3] <= 6631.0\ngini = 0.2266\nsamples = 16\nvalue = [0, 1, 0, 1, 14, 0, 0]"] ;
147 -> 155 ;
156 [label="gini = 0.0\nsamples = 1\nvalue = [0, 0, 0, 1, 0, 0, 0]"] ;
155 -> 156 ;
157 [label="X[2] <= 2755.0\ngini = 0.1244\nsamples = 15\nvalue = [0, 1, 0, 0, 14, 0, 0]"] ;
155 -> 157 ;
158 [label="gini = 0.0\nsamples = 14\nvalue = [0, 0, 0, 0, 14, 0, 0]"] ;
157 -> 158 ;
159 [label="gini = 0.0\nsamples = 1\nvalue = [0, 1, 0, 0, 0, 0, 0]"] ;
157 -> 159 ;
160 [label="X[4] <= 8030.0\ngini = 0.5667\nsamples = 296\nvalue = [3, 6, 51, 1, 180, 54, 1]"] ;
82 -> 160 ;
161 [label="X[2] <= 2233.0\ngini = 0.5147\nsamples = 79\nvalue = [0, 0, 33, 0, 44, 2, 0]"] ;
160 -> 161 ;
162 [label="X[0] <= 1132.0\ngini = 0.3571\nsamples = 14\nvalue = [0, 0, 11, 0, 2, 1, 0]"] ;
161 -> 162 ;
163 [label="gini = 0.0\nsamples = 1\nvalue = [0, 0, 0, 0, 0, 1, 0]"] ;
162 -> 163 ;
164 [label="X[7] <= 22515.5\ngini = 0.2604\nsamples = 13\nvalue = [0, 0, 11, 0, 2, 0, 0]"] ;
162 -> 164 ;
165 [label="X[6] <= 21112.0\ngini = 0.1528\nsamples = 12\nvalue = [0, 0, 11, 0, 1, 0, 0]"] ;
164 -> 165 ;
166 [label="gini = 0.0\nsamples = 11\nvalue = [0, 0, 11, 0, 0, 0, 0]"] ;
165 -> 166 ;
167 [label="gini = 0.0\nsamples = 1\nvalue = [0, 0, 0, 0, 1, 0, 0]"] ;
165 -> 167 ;
168 [label="gini = 0.0\nsamples = 1\nvalue = [0, 0, 0, 0, 1, 0, 0]"] ;
164 -> 168 ;
169 [label="X[3] <= 9027.0\ngini = 0.4677\nsamples = 65\nvalue = [0, 0, 22, 0, 42, 1, 0]"] ;
161 -> 169 ;
170 [label="X[4] <= 7353.0\ngini = 0.375\nsamples = 8\nvalue = [0, 0, 6, 0, 2, 0, 0]"] ;
169 -> 170 ;
171 [label="gini = 0.0\nsamples = 2\nvalue = [0, 0, 0, 0, 2, 0, 0]"] ;
170 -> 171 ;
172 [label="gini = 0.0\nsamples = 6\nvalue = [0, 0, 6, 0, 0, 0, 0]"] ;
170 -> 172 ;
173 [label="X[2] <= 2335.0\ngini = 0.4284\nsamples = 57\nvalue = [0, 0, 16, 0, 40, 1, 0]"] ;
169 -> 173 ;
174 [label="X[3] <= 23426.0\ngini = 0.2145\nsamples = 17\nvalue = [0, 0, 1, 0, 15, 1, 0]"] ;
173 -> 174 ;
175 [label="X[4] <= 7144.0\ngini = 0.1172\nsamples = 16\nvalue = [0, 0, 0, 0, 15, 1, 0]"] ;
174 -> 175 ;
176 [label="gini = 0.0\nsamples = 1\nvalue = [0, 0, 0, 0, 0, 1, 0]"] ;
175 -> 176 ;
177 [label="gini = 0.0\nsamples = 15\nvalue = [0, 0, 0, 0, 15, 0, 0]"] ;
175 -> 177 ;
178 [label="gini = 0.0\nsamples = 1\nvalue = [0, 0, 1, 0, 0, 0, 0]"] ;
174 -> 178 ;
179 [label="X[2] <= 2356.0\ngini = 0.4688\nsamples = 40\nvalue = [0, 0, 15, 0, 25, 0, 0]"] ;
173 -> 179 ;
180 [label="gini = 0.0\nsamples = 5\nvalue = [0, 0, 5, 0, 0, 0, 0]"] ;
179 -> 180 ;
181 [label="X[3] <= 13591.5\ngini = 0.4082\nsamples = 35\nvalue = [0, 0, 10, 0, 25, 0, 0]"] ;
179 -> 181 ;
182 [label="X[2] <= 2521.5\ngini = 0.497\nsamples = 13\nvalue = [0, 0, 7, 0, 6, 0, 0]"] ;
181 -> 182 ;
183 [label="X[4] <= 7227.5\ngini = 0.2449\nsamples = 7\nvalue = [0, 0, 6, 0, 1, 0, 0]"] ;
182 -> 183 ;
184 [label="gini = 0.0\nsamples = 1\nvalue = [0, 0, 0, 0, 1, 0, 0]"] ;
183 -> 184 ;
185 [label="gini = 0.0\nsamples = 6\nvalue = [0, 0, 6, 0, 0, 0, 0]"] ;
183 -> 185 ;
186 [label="X[3] <= 12104.0\ngini = 0.2778\nsamples = 6\nvalue = [0, 0, 1, 0, 5, 0, 0]"] ;
182 -> 186 ;
187 [label="gini = 0.0\nsamples = 5\nvalue = [0, 0, 0, 0, 5, 0, 0]"] ;
186 -> 187 ;
188 [label="gini = 0.0\nsamples = 1\nvalue = [0, 0, 1, 0, 0, 0, 0]"] ;
186 -> 188 ;
189 [label="X[2] <= 2612.5\ngini = 0.2355\nsamples = 22\nvalue = [0, 0, 3, 0, 19, 0, 0]"] ;
181 -> 189 ;
190 [label="X[1] <= 3194.0\ngini = 0.095\nsamples = 20\nvalue = [0, 0, 1, 0, 19, 0, 0]"] ;
189 -> 190 ;
191 [label="gini = 0.0\nsamples = 1\nvalue = [0, 0, 1, 0, 0, 0, 0]"] ;
190 -> 191 ;
192 [label="gini = 0.0\nsamples = 19\nvalue = [0, 0, 0, 0, 19, 0, 0]"] ;
190 -> 192 ;
193 [label="gini = 0.0\nsamples = 2\nvalue = [0, 0, 2, 0, 0, 0, 0]"] ;
189 -> 193 ;
194 [label="X[8] <= 17382.0\ngini = 0.5419\nsamples = 217\nvalue = [3, 6, 18, 1, 136, 52, 1]"] ;
160 -> 194 ;
195 [label="X[2] <= 3770.0\ngini = 0.5197\nsamples = 204\nvalue = [1, 6, 18, 1, 133, 44, 1]"] ;
194 -> 195 ;
196 [label="X[0] <= 1139.0\ngini = 0.4926\nsamples = 194\nvalue = [1, 2, 16, 0, 130, 44, 1]"] ;
195 -> 196 ;
197 [label="gini = 0.0\nsamples = 3\nvalue = [0, 0, 0, 0, 0, 3, 0]"] ;
196 -> 197 ;
198 [label="X[8] <= 11692.5\ngini = 0.4835\nsamples = 191\nvalue = [1, 2, 16, 0, 130, 41, 1]"] ;
196 -> 198 ;
199 [label="X[6] <= 4635.0\ngini = 0.3678\nsamples = 83\nvalue = [1, 2, 5, 0, 65, 10, 0]"] ;
198 -> 199 ;
200 [label="X[5] <= 2022.5\ngini = 0.6389\nsamples = 31\nvalue = [1, 1, 5, 0, 16, 8, 0]"] ;
199 -> 200 ;
201 [label="X[4] <= 10973.5\ngini = 0.685\nsamples = 20\nvalue = [0, 1, 5, 0, 6, 8, 0]"] ;
200 -> 201 ;
202 [label="X[1] <= 3254.0\ngini = 0.6939\nsamples = 14\nvalue = [0, 1, 5, 0, 5, 3, 0]"] ;
201 -> 202 ;
203 [label="X[5] <= 1926.0\ngini = 0.375\nsamples = 4\nvalue = [0, 0, 3, 0, 0, 1, 0]"] ;
202 -> 203 ;
204 [label="gini = 0.0\nsamples = 3\nvalue = [0, 0, 3, 0, 0, 0, 0]"] ;
203 -> 204 ;
205 [label="gini = 0.0\nsamples = 1\nvalue = [0, 0, 0, 0, 0, 1, 0]"] ;
203 -> 205 ;
206 [label="X[3] <= 12884.0\ngini = 0.66\nsamples = 10\nvalue = [0, 1, 2, 0, 5, 2, 0]"] ;
202 -> 206 ;
207 [label="X[8] <= 10787.5\ngini = 0.7347\nsamples = 7\nvalue = [0, 1, 2, 0, 2, 2, 0]"] ;
206 -> 207 ;
208 [label="X[0] <= 1187.0\ngini = 0.64\nsamples = 5\nvalue = [0, 1, 2, 0, 2, 0, 0]"] ;
207 -> 208 ;
209 [label="X[0] <= 1160.0\ngini = 0.4444\nsamples = 3\nvalue = [0, 1, 2, 0, 0, 0, 0]"] ;
208 -> 209 ;
210 [label="gini = 0.0\nsamples = 1\nvalue = [0, 1, 0, 0, 0, 0, 0]"] ;
209 -> 210 ;
211 [label="gini = 0.0\nsamples = 2\nvalue = [0, 0, 2, 0, 0, 0, 0]"] ;
209 -> 211 ;
212 [label="gini = 0.0\nsamples = 2\nvalue = [0, 0, 0, 0, 2, 0, 0]"] ;
208 -> 212 ;
213 [label="gini = 0.0\nsamples = 2\nvalue = [0, 0, 0, 0, 0, 2, 0]"] ;
207 -> 213 ;
214 [label="gini = 0.0\nsamples = 3\nvalue = [0, 0, 0, 0, 3, 0, 0]"] ;
206 -> 214 ;
215 [label="X[5] <= 1921.0\ngini = 0.2778\nsamples = 6\nvalue = [0, 0, 0, 0, 1, 5, 0]"] ;
201 -> 215 ;
216 [label="X[4] <= 17104.0\ngini = 0.5\nsamples = 2\nvalue = [0, 0, 0, 0, 1, 1, 0]"] ;
215 -> 216 ;
217 [label="gini = 0.0\nsamples = 1\nvalue = [0, 0, 0, 0, 1, 0, 0]"] ;
216 -> 217 ;
218 [label="gini = 0.0\nsamples = 1\nvalue = [0, 0, 0, 0, 0, 1, 0]"] ;
216 -> 218 ;
219 [label="gini = 0.0\nsamples = 4\nvalue = [0, 0, 0, 0, 0, 4, 0]"] ;
215 -> 219 ;
220 [label="X[0] <= 1168.0\ngini = 0.1653\nsamples = 11\nvalue = [1, 0, 0, 0, 10, 0, 0]"] ;
200 -> 220 ;
221 [label="gini = 0.0\nsamples = 1\nvalue = [1, 0, 0, 0, 0, 0, 0]"] ;
220 -> 221 ;
222 [label="gini = 0.0\nsamples = 10\nvalue = [0, 0, 0, 0, 10, 0, 0]"] ;
220 -> 222 ;
223 [label="X[0] <= 1151.0\ngini = 0.1102\nsamples = 52\nvalue = [0, 1, 0, 0, 49, 2, 0]"] ;
199 -> 223 ;
224 [label="X[7] <= 23652.5\ngini = 0.5\nsamples = 2\nvalue = [0, 0, 0, 0, 1, 1, 0]"] ;
223 -> 224 ;
225 [label="gini = 0.0\nsamples = 1\nvalue = [0, 0, 0, 0, 0, 1, 0]"] ;
224 -> 225 ;
226 [label="gini = 0.0\nsamples = 1\nvalue = [0, 0, 0, 0, 1, 0, 0]"] ;
224 -> 226 ;
227 [label="X[4] <= 11780.0\ngini = 0.0776\nsamples = 50\nvalue = [0, 1, 0, 0, 48, 1, 0]"] ;
223 -> 227 ;
228 [label="X[5] <= 2072.5\ngini = 0.0416\nsamples = 47\nvalue = [0, 0, 0, 0, 46, 1, 0]"] ;
227 -> 228 ;
229 [label="gini = 0.0\nsamples = 44\nvalue = [0, 0, 0, 0, 44, 0, 0]"] ;
228 -> 229 ;
230 [label="X[8] <= 10807.5\ngini = 0.4444\nsamples = 3\nvalue = [0, 0, 0, 0, 2, 1, 0]"] ;
228 -> 230 ;
231 [label="gini = 0.0\nsamples = 2\nvalue = [0, 0, 0, 0, 2, 0, 0]"] ;
230 -> 231 ;
232 [label="gini = 0.0\nsamples = 1\nvalue = [0, 0, 0, 0, 0, 1, 0]"] ;
230 -> 232 ;
233 [label="X[5] <= 2000.0\ngini = 0.4444\nsamples = 3\nvalue = [0, 1, 0, 0, 2, 0, 0]"] ;
227 -> 233 ;
234 [label="gini = 0.0\nsamples = 1\nvalue = [0, 1, 0, 0, 0, 0, 0]"] ;
233 -> 234 ;
235 [label="gini = 0.0\nsamples = 2\nvalue = [0, 0, 0, 0, 2, 0, 0]"] ;
233 -> 235 ;
236 [label="X[8] <= 11779.5\ngini = 0.5449\nsamples = 108\nvalue = [0, 0, 11, 0, 65, 31, 1]"] ;
198 -> 236 ;
237 [label="gini = 0.0\nsamples = 4\nvalue = [0, 0, 0, 0, 0, 4, 0]"] ;
236 -> 237 ;
238 [label="X[6] <= 26473.5\ngini = 0.5307\nsamples = 104\nvalue = [0, 0, 11, 0, 65, 27, 1]"] ;
236 -> 238 ;
239 [label="X[1] <= 3941.0\ngini = 0.5124\nsamples = 100\nvalue = [0, 0, 11, 0, 65, 23, 1]"] ;
238 -> 239 ;
240 [label="X[0] <= 1295.0\ngini = 0.4784\nsamples = 95\nvalue = [0, 0, 9, 0, 65, 20, 1]"] ;
239 -> 240 ;
241 [label="X[0] <= 1181.0\ngini = 0.4352\nsamples = 87\nvalue = [0, 0, 7, 0, 63, 16, 1]"] ;
240 -> 241 ;
242 [label="X[0] <= 1177.0\ngini = 0.5504\nsamples = 25\nvalue = [0, 0, 2, 0, 14, 9, 0]"] ;
241 -> 242 ;
243 [label="X[6] <= 20250.0\ngini = 0.4383\nsamples = 18\nvalue = [0, 0, 2, 0, 13, 3, 0]"] ;
242 -> 243 ;
244 [label="X[4] <= 8208.0\ngini = 0.1653\nsamples = 11\nvalue = [0, 0, 1, 0, 10, 0, 0]"] ;
243 -> 244 ;
245 [label="gini = 0.0\nsamples = 1\nvalue = [0, 0, 1, 0, 0, 0, 0]"] ;
244 -> 245 ;
246 [label="gini = 0.0\nsamples = 10\nvalue = [0, 0, 0, 0, 10, 0, 0]"] ;
244 -> 246 ;
247 [label="X[5] <= 1857.0\ngini = 0.6122\nsamples = 7\nvalue = [0, 0, 1, 0, 3, 3, 0]"] ;
243 -> 247 ;
248 [label="gini = 0.0\nsamples = 3\nvalue = [0, 0, 0, 0, 3, 0, 0]"] ;
247 -> 248 ;
249 [label="X[8] <= 13684.5\ngini = 0.375\nsamples = 4\nvalue = [0, 0, 1, 0, 0, 3, 0]"] ;
247 -> 249 ;
250 [label="gini = 0.0\nsamples = 1\nvalue = [0, 0, 1, 0, 0, 0, 0]"] ;
249 -> 250 ;
251 [label="gini = 0.0\nsamples = 3\nvalue = [0, 0, 0, 0, 0, 3, 0]"] ;
249 -> 251 ;
252 [label="X[8] <= 14462.5\ngini = 0.2449\nsamples = 7\nvalue = [0, 0, 0, 0, 1, 6, 0]"] ;
242 -> 252 ;
253 [label="gini = 0.0\nsamples = 6\nvalue = [0, 0, 0, 0, 0, 6, 0]"] ;
252 -> 253 ;
254 [label="gini = 0.0\nsamples = 1\nvalue = [0, 0, 0, 0, 1, 0, 0]"] ;
252 -> 254 ;
255 [label="X[7] <= 27697.5\ngini = 0.3559\nsamples = 62\nvalue = [0, 0, 5, 0, 49, 7, 1]"] ;
241 -> 255 ;
256 [label="X[5] <= 2388.5\ngini = 0.3119\nsamples = 56\nvalue = [0, 0, 5, 0, 46, 4, 1]"] ;
255 -> 256 ;
257 [label="X[1] <= 3517.5\ngini = 0.2889\nsamples = 55\nvalue = [0, 0, 5, 0, 46, 3, 1]"] ;
256 -> 257 ;
258 [label="X[5] <= 2198.0\ngini = 0.4896\nsamples = 25\nvalue = [0, 0, 5, 0, 17, 2, 1]"] ;
257 -> 258 ;
259 [label="X[2] <= 2452.5\ngini = 0.4272\nsamples = 23\nvalue = [0, 0, 3, 0, 17, 2, 1]"] ;
258 -> 259 ;
260 [label="X[1] <= 3030.5\ngini = 0.7\nsamples = 10\nvalue = [0, 0, 3, 0, 4, 2, 1]"] ;
259 -> 260 ;
261 [label="gini = 0.0\nsamples = 3\nvalue = [0, 0, 3, 0, 0, 0, 0]"] ;
260 -> 261 ;
262 [label="X[2] <= 2354.0\ngini = 0.5714\nsamples = 7\nvalue = [0, 0, 0, 0, 4, 2, 1]"] ;
260 -> 262 ;
263 [label="gini = 0.0\nsamples = 4\nvalue = [0, 0, 0, 0, 4, 0, 0]"] ;
262 -> 263 ;
264 [label="X[8] <= 12772.0\ngini = 0.4444\nsamples = 3\nvalue = [0, 0, 0, 0, 0, 2, 1]"] ;
262 -> 264 ;
265 [label="gini = 0.0\nsamples = 1\nvalue = [0, 0, 0, 0, 0, 0, 1]"] ;
264 -> 265 ;
266 [label="gini = 0.0\nsamples = 2\nvalue = [0, 0, 0, 0, 0, 2, 0]"] ;
264 -> 266 ;
267 [label="gini = 0.0\nsamples = 13\nvalue = [0, 0, 0, 0, 13, 0, 0]"] ;
259 -> 267 ;
268 [label="gini = 0.0\nsamples = 2\nvalue = [0, 0, 2, 0, 0, 0, 0]"] ;
258 -> 268 ;
269 [label="X[6] <= 23898.5\ngini = 0.0644\nsamples = 30\nvalue = [0, 0, 0, 0, 29, 1, 0]"] ;
257 -> 269 ;
270 [label="gini = 0.0\nsamples = 29\nvalue = [0, 0, 0, 0, 29, 0, 0]"] ;
269 -> 270 ;
271 [label="gini = 0.0\nsamples = 1\nvalue = [0, 0, 0, 0, 0, 1, 0]"] ;
269 -> 271 ;
272 [label="gini = 0.0\nsamples = 1\nvalue = [0, 0, 0, 0, 0, 1, 0]"] ;
256 -> 272 ;
273 [label="X[2] <= 2558.0\ngini = 0.5\nsamples = 6\nvalue = [0, 0, 0, 0, 3, 3, 0]"] ;
255 -> 273 ;
274 [label="gini = 0.0\nsamples = 3\nvalue = [0, 0, 0, 0, 3, 0, 0]"] ;
273 -> 274 ;
275 [label="gini = 0.0\nsamples = 3\nvalue = [0, 0, 0, 0, 0, 3, 0]"] ;
273 -> 275 ;
276 [label="X[0] <= 1310.0\ngini = 0.625\nsamples = 8\nvalue = [0, 0, 2, 0, 2, 4, 0]"] ;
240 -> 276 ;
277 [label="gini = 0.0\nsamples = 4\nvalue = [0, 0, 0, 0, 0, 4, 0]"] ;
276 -> 277 ;
278 [label="X[1] <= 3547.5\ngini = 0.5\nsamples = 4\nvalue = [0, 0, 2, 0, 2, 0, 0]"] ;
276 -> 278 ;
279 [label="gini = 0.0\nsamples = 2\nvalue = [0, 0, 2, 0, 0, 0, 0]"] ;
278 -> 279 ;
280 [label="gini = 0.0\nsamples = 2\nvalue = [0, 0, 0, 0, 2, 0, 0]"] ;
278 -> 280 ;
281 [label="X[4] <= 9582.0\ngini = 0.48\nsamples = 5\nvalue = [0, 0, 2, 0, 0, 3, 0]"] ;
239 -> 281 ;
282 [label="X[3] <= 13659.5\ngini = 0.4444\nsamples = 3\nvalue = [0, 0, 2, 0, 0, 1, 0]"] ;
281 -> 282 ;
283 [label="gini = 0.0\nsamples = 2\nvalue = [0, 0, 2, 0, 0, 0, 0]"] ;
282 -> 283 ;
284 [label="gini = 0.0\nsamples = 1\nvalue = [0, 0, 0, 0, 0, 1, 0]"] ;
282 -> 284 ;
285 [label="gini = 0.0\nsamples = 2\nvalue = [0, 0, 0, 0, 0, 2, 0]"] ;
281 -> 285 ;
286 [label="gini = 0.0\nsamples = 4\nvalue = [0, 0, 0, 0, 0, 4, 0]"] ;
238 -> 286 ;
287 [label="X[4] <= 11364.0\ngini = 0.7\nsamples = 10\nvalue = [0, 4, 2, 1, 3, 0, 0]"] ;
195 -> 287 ;
288 [label="X[3] <= 18850.0\ngini = 0.48\nsamples = 5\nvalue = [0, 0, 2, 0, 3, 0, 0]"] ;
287 -> 288 ;
289 [label="X[8] <= 11726.5\ngini = 0.4444\nsamples = 3\nvalue = [0, 0, 2, 0, 1, 0, 0]"] ;
288 -> 289 ;
290 [label="gini = 0.0\nsamples = 1\nvalue = [0, 0, 0, 0, 1, 0, 0]"] ;
289 -> 290 ;
291 [label="gini = 0.0\nsamples = 2\nvalue = [0, 0, 2, 0, 0, 0, 0]"] ;
289 -> 291 ;
292 [label="gini = 0.0\nsamples = 2\nvalue = [0, 0, 0, 0, 2, 0, 0]"] ;
288 -> 292 ;
293 [label="X[1] <= 3187.0\ngini = 0.32\nsamples = 5\nvalue = [0, 4, 0, 1, 0, 0, 0]"] ;
287 -> 293 ;
294 [label="gini = 0.0\nsamples = 1\nvalue = [0, 0, 0, 1, 0, 0, 0]"] ;
293 -> 294 ;
295 [label="gini = 0.0\nsamples = 4\nvalue = [0, 4, 0, 0, 0, 0, 0]"] ;
293 -> 295 ;
296 [label="X[1] <= 3243.0\ngini = 0.5444\nsamples = 13\nvalue = [2, 0, 0, 0, 3, 8, 0]"] ;
194 -> 296 ;
297 [label="gini = 0.0\nsamples = 2\nvalue = [2, 0, 0, 0, 0, 0, 0]"] ;
296 -> 297 ;
298 [label="X[2] <= 2244.5\ngini = 0.3967\nsamples = 11\nvalue = [0, 0, 0, 0, 3, 8, 0]"] ;
296 -> 298 ;
299 [label="gini = 0.0\nsamples = 2\nvalue = [0, 0, 0, 0, 2, 0, 0]"] ;
298 -> 299 ;
300 [label="X[8] <= 24392.5\ngini = 0.1975\nsamples = 9\nvalue = [0, 0, 0, 0, 1, 8, 0]"] ;
298 -> 300 ;
301 [label="gini = 0.0\nsamples = 8\nvalue = [0, 0, 0, 0, 0, 8, 0]"] ;
300 -> 301 ;
302 [label="gini = 0.0\nsamples = 1\nvalue = [0, 0, 0, 0, 1, 0, 0]"] ;
300 -> 302 ;
}